{
  "format": "tensor4j-v1",
  "framework": "tinygrad-compatible",
  "dtype": "float32",
  "tensors": {
    "fc1.weight": { "shape": [16, 3], "data": [0.65986323, 1.4227389, 0.16503091, 0.48134384, 0.83029634, 0.47640502, -0.069321886, 1.7456044, 0.7411173, 1.6711959, 0.70227057, -0.36762026, -0.8179634, -0.8067708, -1.094076, 0.7194799, -0.57431835, -1.5343072, 0.25297287, 0.013307309, -0.09312498, 0.5466963, -0.66844624, -0.3976336, 0.74847746, 0.1538773, -1.0352868, 1.0261257, -0.42092654, -0.4378502, 0.9152103, 0.35485023, -0.780401, -0.24651366, 0.13309813, -0.31811538, -0.7196628, 0.05604462, 1.5698302, 0.68917024, 0.4985367, 0.42019415, 0.7337013, 0.61429244, 0.7317372, -0.6042806, -0.5609594, -0.55913585] },
    "fc1.bias": { "shape": [16], "data": [0, 0, 0, 0, 0, 0, 0, 0, 0, 0, 0, 0, 0, 0, 0, 0] },
    "fc2.weight": { "shape": [16, 16], "data": [-0.6759676, 0.29432982, -0.4968878, 0.2181069, -0.29356402, 0.10847307, 0.1857205, -0.07418457, -0.47331452, -0.38285494, 0.34560877, 0.3135078, 0.28440595, -0.24927971, 0.15594013, -0.06253213, -0.14418338, 0.2260056, 0.12512255, 0.6338803, 0.040294714, 0.38057432, 0.16917107, 0.34183243, 0.018993767, -0.12046, -0.30780143, 0.48902923, 0.083654985, -0.13353285, -0.07798085, 0.026639502, -0.032614768, -0.1568446, 0.26433793, -0.35331059, -0.053452555, -0.09811434, 0.09038234, -0.45276693, -0.43293348, 0.09177018, 0.23652755, -0.3735371, 0.4004596, -0.02854516, 0.57104945, 0.009425005, 0.42718932, -0.35575306, 0.37018555, 0.21726784, -0.08772278, -0.29399687, -0.2708618, -0.10194002, 0.4449111, -0.38182634, 0.4220057, 0.1184113, -0.16962801, -0.08211292, 0.07400193, -0.038119, -0.13019149, 0.67798483, 0.5637316, -0.3667004, -0.13310349, -0.39022836, 0.25451443, -0.3580586, -0.32767946, 0.034518998, -0.42000625, 0.22304304, 0.66728294, -0.4492478, -0.19079885, -0.19404882, 0.32073668, 0.33004394, 0.17096318, 0.65274805, 0.13064067, 0.23711692, -0.6201654, 0.07893055, 0.116697185, -0.3526843, 0.004427831, 0.15172675, 0.4164221, 0.034336675, -0.7397908, 0.495477, -0.6792694, -0.26269567, -0.038415663, 0.39846906, -0.22086358, -0.39974442, 0.060952593, 0.016884033, 1.0210676, -0.41831577, -0.4234458, -0.42638528, -0.30238593, -0.12228418, -0.22327788, -0.18500413, -0.14548486, 0.6047931, 0.25817102, 0.37294203, -0.43694207, -0.11412316, -0.120144166, -0.47175935, -0.07987072, 0.38618353, -0.5115163, -0.017301403, -0.59994274, 0.18404673, 0.27058008, 0.09464939, 0.13014437, 0.88816446, -0.3567539, -0.343528, 0.10194328, -0.4703836, 0.3769363, -0.7585948, 0.5741077, -0.13736403, 0.9046362, 0.010733659, 0.43911448, 0.24295929, -0.59255975, 0.058014683, -0.40544298, -0.6499385, -0.23552196, -0.3150052, -0.19221087, 0.25173575, 0.25583935, -0.72018707, 0.39342847, -0.29279464, 0.0019444152, 0.27551523, -0.52245, 0.2434929, -0.086325444, -0.19149844, -0.3393782, -0.2507111, 0.19386353, 0.4706547, 0.58730125, -0.33289516, 0.6033265, 0.04098181, -0.031199845, 0.3418591, 0.08986723, 0.22752921, 0.04401199, -0.3210998, -0.27604094, -0.045065157, 0.14072731, 0.1428098, 0.26130867, 0.04438089, 0.41208166, -0.59450376, 0.29187506, 0.3754626, 0.403296, 0.041802038, -0.09734718, 0.30903262, 0.22113806, 0.6167513, 0.32859564, 0.3415541, 0.034278423, 0.18579961, 0.16229372, 0.19346923, 0.021779865, 0.5121006, 0.26593673, 0.49249467, 0.28699932, 0.35774237, 0.33927864, 1.1795425, 0.25923783, 0.50902593, -0.17727944, 0.6890719, 9.799473E-4, -0.3093583, -0.1989227, -0.14472692, -0.72476244, -0.34038264, 0.27352598, 0.053518213, -0.0870192, 0.2650399, 0.016877195, 0.018672187, -0.1553633, 0.049644947, -0.47512996, -0.065566994, 0.015584021, -0.06544862, 0.063325725, -0.70732516, 0.23980907, -0.35000452, -0.5330441, 0.018871414, 0.76531297, -0.2346035, -0.14438312, -0.66300344, 0.009358178, -0.38374093, 0.07210491, -0.0805633, 0.017153114, -0.36264735, -0.2869948, 0.15332527, 0.21962017, -0.33225518, -0.04022757, -0.030060051, -0.2852474, -0.30231553, -0.7192245, -0.107559875, -0.18719596, -0.32257542, 0.18422705, -0.021489687] },
    "fc2.bias": { "shape": [16], "data": [0, 0, 0, 0, 0, 0, 0, 0, 0, 0, 0, 0, 0, 0, 0, 0] },
    "fc3.weight": { "shape": [1, 16], "data": [0.9148559, 0.15529956, -0.112105176, 0.13213973, -0.3936979, 0.116763994, 0.28567457, -0.43690458, 0.3293274, -0.48336244, 0.15088613, -0.5201529, 4.771909E-4, 0.12475894, -0.31248626, -0.2645928] },
    "fc3.bias": { "shape": [1], "data": [0] }
  }
}
